,Y,T,S
0,-1.2061304999358546,1.0,-0.5936470881622419
1,1.0492475547029458,0.0,-1.0419223071850867
2,-0.7170675129162697,0.0,0.08124791976429291
3,1.0116658575759399,0.0,0.9144493810374714
4,1.2757359512278799,1.0,0.7855872511727705
5,-0.04436294924163467,1.0,0.9076017216617535
6,0.7204748015327878,1.0,1.5283970270830989
7,-0.8818766283654135,0.0,-1.5187012071709942
8,-0.8608190211753869,1.0,-0.0914099672297207
9,1.034293087267972,1.0,0.47475672074329633
10,-0.2493912012529371,1.0,0.5200017773692688
11,-0.7638465551960004,0.0,0.08967383816404756
12,-0.8594519562166035,0.0,-1.556483953360989
13,0.08918401506312232,1.0,-0.5769380530521595
14,0.25871130551027205,0.0,-0.7321410161732393
15,1.504206257521839,1.0,0.7280661779132881
16,-1.1728005374105046,1.0,0.5210986959732163
17,0.15712419698510713,1.0,-0.10720534385451452
18,2.6287659743932807,0.0,1.882413985395774
19,0.39519840949885154,1.0,1.836277659647761
20,0.8277634835815559,1.0,0.9688701392913401
21,-1.0068071474202154,0.0,-0.8869259678375387
22,-1.9999145152879445,0.0,-1.6057699810417398
23,-0.9527635897693635,1.0,-2.230402581765295
24,1.0886463071129873,1.0,1.1317560867891152
25,0.7950448506455298,0.0,-0.23492984152133561
26,-1.5424552831550884,1.0,-1.3114459082389622
27,-1.5628988971537894,1.0,0.4553292301302412
28,0.2528351056125329,0.0,-2.146867211058361
29,0.1352105607948085,1.0,-1.5673500732158128
30,0.5486428054862045,0.0,2.2336868805908514
31,-0.40622098632909787,1.0,-1.5231525407520483
32,-1.8968706867118992,1.0,1.6897557627213005
33,0.14447755667673481,0.0,1.8784925240412635
34,0.11736391439628366,0.0,-0.9394688403193284
35,1.391367159552089,1.0,-0.6979671116055628
36,0.8153960437557722,0.0,-0.7129299804426494
37,0.9074153851107266,1.0,0.7499259418429547
38,-0.04105853244192417,1.0,-1.1833900389336347
39,-0.028627937461115777,1.0,-1.2641604599331893
40,-0.47132357129304703,1.0,0.5010710676972053
41,-0.021299018315990716,0.0,1.165484696742512
42,-1.1302368463473744,0.0,-2.299919231335843
43,-1.2200136905815306,1.0,1.028776162076229
44,0.0037488919811633666,0.0,1.2531239930415254
45,0.46947735432251136,1.0,2.2604516632329124
46,0.5612364327876275,1.0,1.4445492960690847
47,1.7482856431682332,1.0,1.6633789666951393
48,-0.9221393702474182,0.0,1.3367863183771724
49,-1.096767686051794,1.0,-0.3134451510948821
50,-0.1571683344805201,0.0,1.0661926873658478
51,-0.23001020337205752,0.0,0.14252861836493266
52,-0.4239863872420881,0.0,-1.0887905443770007
53,-0.15832969058032045,0.0,-0.5229456151329404
54,0.3311831079380046,0.0,0.6089370115238728
55,-0.7631073770147723,1.0,0.048335635182476355
56,0.930248972665205,0.0,0.3760585820343681
57,0.44514284353245853,0.0,0.35887574591730104
58,-2.40226012278385,0.0,0.6241106628641337
59,-1.7569549357014296,1.0,-0.9496908548350871
60,0.22317523084364083,1.0,0.6336700440624545
61,-1.6251267498917814,1.0,-0.49286424857343714
62,0.3202282381113557,1.0,0.9974671820334098
63,-0.3462693324310847,1.0,-0.03931432618561059
64,-0.6748803504412866,1.0,0.19054617176931996
65,1.678973420446894,1.0,3.134119901704909
66,0.2858913630110715,1.0,-0.4223061157625151
67,-1.8915572771318176,0.0,-1.1944604104977188
68,0.5729329135342571,1.0,0.037412963238566466
69,-0.9798916779958091,0.0,-1.971829374275506
70,0.23837072030465037,1.0,0.662728618878442
71,0.8298928397750276,1.0,0.3985319720318369
72,-0.8628494730838303,0.0,-0.6498144953346763
73,-0.06173486977054399,1.0,0.49811132115983975
74,-0.8461993058861864,0.0,1.841006862360602
75,-1.003914938940952,1.0,0.37749990700090297
76,-0.4341366831039981,0.0,1.2939695946978538
77,1.2043363794067052,1.0,2.79006394365968
78,0.017422525759680577,0.0,0.9276704456243071
79,2.108028455201598,1.0,1.4242415162194042
80,0.4268407873726088,0.0,-0.001193087643367452
81,0.6625146764332117,1.0,0.5643037188009022
82,-1.0365282206186432,0.0,-0.9624075114073776
83,-0.25788086013265965,1.0,-0.5143743322244777
84,-0.20314472045076995,1.0,-0.45075553971432436
85,-1.0975659603830537,1.0,-1.4329990926221372
86,-0.34607069572975085,0.0,1.2991633295381926
87,-0.21111387747614221,0.0,0.9124827842421291
88,0.5575335714418804,1.0,0.7071626565532888
89,1.9462342382414777,1.0,1.8017977561021303
90,0.8648179372382024,0.0,0.2662998175596243
91,0.2523771727023197,0.0,-0.090034525965875
92,1.1623947343708252,1.0,1.7796704759383197
93,-0.06982037275170716,0.0,2.438648230042908
94,1.7503609442263521,0.0,0.7716311291056492
95,1.3060029342514619,1.0,1.2784513607311474
96,0.7648362831977458,0.0,0.39126020275026585
97,0.421327641918511,0.0,1.901915382250524
98,-0.06571324828036995,0.0,-1.145363259556731
99,-1.4499690082179604,0.0,-0.6350002118791205
100,0.3358318629483682,0.0,-0.8373864164251326
101,1.5238682245123722,0.0,2.549956895699152
102,0.5771979220073975,1.0,1.6963596482867715
103,0.6285647583328811,1.0,2.53392133183991
104,0.7632316933573021,0.0,0.7611893900049396
105,-1.7326650739979037,0.0,-2.2413163835161987
106,0.16741683284016956,1.0,-0.5024581270679205
107,-0.6151421767769355,1.0,0.5094957571344501
108,-1.6815733987681347,1.0,-0.4543651995086694
109,0.6692704311033794,0.0,-0.7431061643024519
110,-0.00766294022264597,0.0,-1.5908192069397704
111,1.0593760101697909,1.0,1.387161623127414
112,-0.22718013636034065,1.0,2.3573246434352035
113,1.491313549914378,1.0,1.926813833630547
114,0.06438113303531848,1.0,0.7636234346359185
115,-0.7499249041402929,1.0,-1.9021393555100674
116,1.9877686928827412,1.0,1.671139885695599
117,0.1461082507204109,1.0,-0.9593465668693031
118,-0.0383306226381645,1.0,0.369034531203074
119,0.3460959922860658,0.0,0.30806018727433515
120,0.44950541072692995,0.0,0.4438111493352346
121,-0.40470880368559287,0.0,-0.21104819791869012
122,2.3477180308413423,0.0,1.904048719351898
123,-1.1125308615518363,1.0,0.9147640296653698
124,0.90358203242818,1.0,1.0526468531596032
125,1.467770016429161,1.0,0.1976929321923493
126,0.4109640523613468,1.0,-1.5738886669394707
127,0.03415485869187776,1.0,0.8004270840797446
128,0.562274472454908,1.0,-0.6464061187823471
129,-0.8269049398049294,0.0,-0.004186116968602882
130,-0.3807873520102365,0.0,-0.07771713356468035
131,-0.023395383813842097,1.0,-0.19716547781778426
132,0.030166209556386433,0.0,-0.6315078447795257
133,0.4318265931960261,0.0,-0.9382881761708279
134,0.7762066463025086,1.0,0.8044099747154022
135,0.8291507944904886,1.0,1.4824628953983603
136,2.293237544141645,0.0,0.46114139107953167
137,0.5702048890558138,0.0,0.6208566366749098
138,-0.3706592032207922,0.0,1.7823989449994528
139,1.6522558130921094,1.0,2.72042367597441
140,-0.6786725533916504,1.0,-1.0006227405512753
141,-0.1910745329428645,0.0,1.12096490263242
142,0.8758069618098864,1.0,0.6005290860497094
143,-0.23187589038526693,1.0,-0.9234800252604269
144,-1.2318199731506247,0.0,0.5158248610655691
145,0.09215144248104312,1.0,1.0242977413092955
146,-1.036257606148987,0.0,-1.1808545904607821
147,1.6041013297997944,0.0,0.8653998490277013
148,1.3520707897691415,1.0,1.98533421973827
149,0.6533601819276849,0.0,1.5248581077695045
150,1.5907430476113378,1.0,2.410109743039145
151,-0.0033424464768885133,0.0,0.7801128510066724
152,1.183112285516654,0.0,0.8332187479396195
153,-0.3533845896713493,0.0,0.6896397832712571
154,-0.11611990690956946,0.0,0.6197805495166233
155,-1.5298356955215917,0.0,0.01596811518537411
156,0.09612248530698789,0.0,-0.4058703239941044
157,-0.6076623673762328,0.0,-0.4550042356108781
158,0.6511700213116858,0.0,1.5930600300955615
159,-0.7897443351988613,0.0,0.9784977129218697
160,-1.1305978425818202,1.0,-0.016566955993519622
161,-1.588375205089318,0.0,-1.3523889314763533
162,-1.5919392384093747,1.0,0.9328969510014175
163,1.8787348146098726,0.0,-0.15534306826502675
164,-0.44616655463612087,0.0,-3.2093886795797846
165,0.16044380189652,1.0,0.629388948215334
166,-1.7541786804847224,1.0,-0.14048458159362304
167,-0.9748917420000861,0.0,0.08114106396878712
168,-0.4780431996764063,1.0,-1.6718497893407833
169,-1.0169773545015495,0.0,-0.3208382015674367
170,0.23468074389487534,1.0,2.22328995813464
171,-0.7453631646113829,0.0,-0.2538482338606266
172,1.012961201595228,1.0,-0.31503425218090664
173,-1.5120606981058955,0.0,0.3793545768733687
174,1.4210578646793588,0.0,2.710012453538404
175,-0.6050120873820091,1.0,0.07019974919538458
176,-0.6394115457226636,0.0,0.7978910995848234
177,-2.010396462873208,1.0,-0.38877993596305144
178,-0.7587671068955919,0.0,3.0989871112895884
179,1.3208041584462522,0.0,-0.1325693555550458
180,-0.7549125622322019,0.0,0.14026134844373617
181,0.01302745308307314,0.0,-0.42507625989881576
182,3.1462744573812103,1.0,0.8329042067393593
183,0.42143951485867004,1.0,-0.8561712862629435
184,-0.018646919771700465,1.0,0.6326938498475185
185,0.2819703291572671,0.0,1.090321886202498
186,0.530195321428388,1.0,-0.16685401282587642
187,-0.32533841981938716,1.0,1.562334990359329
188,0.3023147021968433,1.0,2.7465952419775554
189,-0.49287888229143584,1.0,-0.563420972411617
190,0.5076004249468321,1.0,1.1407877160750708
191,-0.48648086738232377,0.0,1.1811073643644305
192,-0.9942430028642091,0.0,-0.30424762875105105
193,-0.9804775696892111,0.0,-0.7396680019583665
194,-0.6751684709490017,0.0,0.07281835236394907
195,0.3505647606925669,1.0,0.04807639714509493
196,1.4299855987970114,1.0,1.4037906946887078
197,0.4762599594950249,0.0,0.14615453891749747
198,1.0239194348311955,1.0,1.3028825641629893
199,0.4005067028619106,1.0,-0.3910572116281632
200,-0.09812865757762765,1.0,2.7771071842191066
201,0.6529994560552512,1.0,-0.24188917990634762
202,-0.005394982477379684,1.0,0.9446545344029615
203,0.9811791038347825,0.0,-0.0918400477757037
204,0.5746942865489221,0.0,1.2699014279551681
205,-0.46822636335919265,0.0,-0.46059933650341517
206,0.3260561225333065,0.0,-1.2155980700344367
207,0.9431775416629258,1.0,1.7606378730164385
208,0.9349937645977476,0.0,1.0481960248382676
209,-0.35433247964168696,0.0,-0.46268639380032517
210,1.4318861867691501,0.0,2.3108036312427953
211,-0.5186239989082806,1.0,0.6527386567372896
212,1.2106377697252453,1.0,1.2366970664387467
213,1.086898226268621,1.0,1.749233646047173
214,-0.9037419067072925,0.0,-0.3749068917548929
215,2.259020795185151,0.0,0.6823783210314092
216,0.15843052270128713,0.0,0.32946905780582836
217,-1.0840025337183528,1.0,-1.3570787224316048
218,-0.1726462786309285,0.0,0.8747657373014603
219,-1.7817552277338577,0.0,-0.6115855745064644
220,1.1113618943126238,1.0,-0.3576805706206514
221,0.552392578464167,1.0,-0.9932425244129708
222,0.03635871454800228,1.0,0.324434546732318
223,0.2505326225361988,1.0,2.5302076958236217
224,-0.43691852648514606,0.0,-1.3646351665750105
225,-0.9430925923719948,0.0,0.7714551285925676
226,-0.5469442368651186,0.0,-1.8426320275906376
227,1.0142486320635635,0.0,-1.449171972544742
228,0.03169385858183899,0.0,0.8741690615941478
229,0.48628920685898186,0.0,0.7602688146708428
230,0.30081302583642433,1.0,-0.1716236450050762
231,-0.24382625729525156,0.0,-1.8052620032467825
232,0.10794311806791893,0.0,2.1201172305382787
233,1.858150326178816,0.0,1.4168783805178031
234,1.6819020609408093,0.0,0.2973626125610077
235,-0.9342692972353713,1.0,0.5185386354365188
236,0.6154059264807965,1.0,-0.5483278325816905
237,-0.8576076578103198,1.0,-1.921736197371817
238,2.022326717595957,1.0,0.8182975557828963
239,1.0311508767246413,1.0,-0.8865753505524172
240,0.3189923889779153,0.0,-0.28098372667954397
241,-1.2356540282097748,0.0,-1.6536418013904135
242,1.1611335111016516,1.0,-0.5586548326194263
243,-2.1998155412025056,0.0,-0.7295801929746705
244,-0.8018064596677923,0.0,0.07686364876071783
245,1.2695539028937706,1.0,-0.8727781135035695
246,0.5654557046500102,0.0,-0.7096219636829253
247,1.2394926368484018,0.0,0.6892137144685954
248,-0.1396828183157452,0.0,-0.8827549318843587
249,0.09890868972875848,0.0,1.5645156716990252
250,1.416220864035276,0.0,0.8069487139835648
251,0.37567443366603953,0.0,2.4394677224521133
252,0.27487198730455237,0.0,-0.3156609063432273
253,-0.022417015708335108,0.0,3.432263239566147
254,1.9652108725545512,1.0,1.0881817750248914
255,-0.5082835780872558,0.0,-1.082028535338968
256,1.038342125095202,0.0,-0.8772500399360822
257,0.8128446984754484,1.0,0.8402956620683713
258,-1.1172424284120566,1.0,0.2720207345457387
259,0.5662042160717722,0.0,-0.703934818910861
260,-0.0675554185785027,0.0,-0.07231456429436318
261,1.2937663606319996,0.0,-1.1620478867718242
262,1.8010649256214586,1.0,2.0625588081208974
263,0.045891135774570414,1.0,-0.20918850904009334
264,-0.7235502253597258,1.0,-0.20441634851813784
265,-0.4722434293776828,0.0,-0.33415146913540306
266,0.6851829037183532,0.0,-0.5555538951565139
267,-0.044470544722674296,0.0,0.6329930949628038
268,-1.2527145478339783,0.0,0.7720307435064504
269,1.0167009191086231,1.0,1.2371689170762026
270,0.03303303928048977,1.0,0.8587773306124877
271,-0.07104447355024468,0.0,-0.48818803257511656
272,-2.188654869455768,0.0,1.365262556316482
273,0.9730446370712759,1.0,0.7824524779589223
274,0.12427318661967973,0.0,0.32633673127558827
275,0.07641024597067453,1.0,-0.03252535471884899
276,0.5996611448303313,1.0,3.3274387936578607
277,-1.2534150841802894,0.0,-0.8913278286250489
278,0.6594113368990423,0.0,-0.23147591416939967
279,1.006347069926176,1.0,1.6571703289791084
280,0.8939539165810736,0.0,-0.30158088314521764
281,-0.07708468757994863,1.0,1.876377151830524
282,2.46386492013383,1.0,1.9703684631038603
283,0.6226724927748815,0.0,0.8097695712682771
284,-0.04401628405498384,1.0,-0.1579087640164608
285,-0.07135234068376545,0.0,1.3320733909177396
286,-0.11660559057434339,0.0,0.7472915229903638
287,1.153367711699473,1.0,0.16184635233612843
288,-1.926208486861888,1.0,0.10547219794228768
289,0.32337314011830615,1.0,0.6056517740154731
290,-0.9573806605354686,1.0,0.3572996955840509
291,0.3729631283618939,0.0,-0.504258434892656
292,1.4794262641418252,1.0,1.8236950096798554
293,-0.2894022113889734,1.0,2.135478810034502
294,1.074716854239691,0.0,0.6899692117674571
295,-1.1367550957637809,1.0,-0.31988686706313757
296,-2.271533659961297,0.0,-0.49548475174859374
297,-0.802285393119111,0.0,-1.1453345546084441
298,1.2620850990728893,1.0,1.5341680843779917
299,-0.23511367744385894,1.0,1.1646814473743647
300,0.8202252590846514,1.0,1.675945367244742
301,-0.4433631330677107,0.0,-0.21591431345518067
302,0.9404421032509919,1.0,1.0656288670183214
303,1.0404878102840385,0.0,1.1924912633226707
304,-0.23428261343109744,1.0,-0.6383477313104469
305,1.598023770601724,0.0,0.9963869228799102
306,0.5112489476743889,0.0,-0.15366023005927565
307,1.2599727035449222,1.0,0.40404767369462247
308,-1.4744414800142218,0.0,-0.29967510437221306
309,0.17618139727461513,1.0,0.8292737683711072
310,-1.5066490924077482,1.0,-0.06886112141924655
311,-0.6083608573108032,0.0,0.6602337735629201
312,-0.5511554543099639,1.0,0.8192833211270623
313,1.9528097040803198,0.0,1.6898712941114624
314,-0.9495802828820616,0.0,-0.2375310634213154
315,-0.6494571638978871,1.0,2.2822019874864528
316,-0.27946854331294274,0.0,1.4742152113033504
317,0.38775735147820756,1.0,1.6035288896634237
318,0.8068725815552863,0.0,1.7502210889216514
319,-0.5288355377524779,1.0,-1.3074898556091756
320,-0.5568878711353381,1.0,-0.3132520152709441
321,0.3666373830832118,0.0,-0.04620998656863412
322,0.303991100778284,1.0,0.5240587748335933
323,0.1562453246596729,0.0,-0.46642250442461386
324,0.9356649672563074,1.0,-0.396078756999116
325,0.00872710591896804,1.0,-0.19490294339233538
326,1.8970444442945802,0.0,-0.0038164248316208127
327,-0.8893017081979694,0.0,0.12892268604181528
328,-1.5200970951211887,0.0,-1.0486465841939872
329,2.0242589837766705,1.0,1.7451929836737126
330,0.3653062879481612,1.0,2.325650304081199
331,-1.904136352558039,0.0,-0.393526676563528
332,0.7273566855618424,0.0,-1.6209832732561331
333,0.9315329855627973,0.0,-0.6232694637067013
334,-0.3186701225147208,0.0,-1.420326426579464
335,0.023496975556018068,1.0,1.7870567947426355
336,0.7509341470422869,1.0,0.38575413596514785
337,1.6874296605199082,1.0,0.298682101496329
338,1.5496225277700575,1.0,4.691382023794919
339,-0.024136944823415447,0.0,0.46246885305332747
340,0.44636895654571085,0.0,-0.8128798184240942
341,1.7905554634219418,0.0,1.500976200943815
342,0.8941153273325916,1.0,2.0037216942901037
343,-1.0321101611024832,1.0,-0.10406135633906581
344,1.1572136418647052,0.0,-0.9817791000225137
345,-1.4893429907872342,0.0,-1.5962706106941664
346,-0.8253840183384694,1.0,-0.04869921629168386
347,0.28917371369323086,1.0,0.614789613001315
348,2.0351972646122705,1.0,2.5178813426170814
349,0.6240901920798927,1.0,0.9233170316493916
350,1.2258747192679904,1.0,2.2390092225434906
351,0.8957190707146188,1.0,1.7947975087310102
352,0.17845632222640703,1.0,1.0557242028679736
353,-0.7485957810221571,0.0,0.007503685570858787
354,-0.16758518187312163,1.0,0.6699890611690582
355,0.4900249375749405,1.0,0.6428731579767618
356,0.07034399635094135,1.0,-0.8328491431199042
357,-0.23450203742267153,0.0,-1.5280612444480426
358,-0.3633249090081521,0.0,-1.2929158550338604
359,2.912679952307717,0.0,0.5815049087117113
360,-0.2921905255221571,0.0,-0.047305828631774266
361,1.7115171135864105,1.0,2.1544486699384007
362,0.08985222942657464,0.0,1.7025279689675308
363,0.9494240365532539,1.0,2.333571592782036
364,-0.39149756092387744,1.0,2.0010950308420097
365,1.3740728064991248,1.0,2.404923570105813
366,-1.1762923405849235,0.0,-0.05318041505516102
367,0.1304149233458866,1.0,1.0886021391496765
368,0.7485638269616063,0.0,-0.12505288538498488
369,0.7983487220551598,1.0,1.2029698910887041
370,-0.05003003779656903,1.0,2.16958338968963
371,0.024152749190423792,0.0,1.087744351368456
372,-1.9468518695774129,1.0,-1.747946596974099
373,-1.9561648634353763,0.0,-0.8692826501989345
374,-1.5944182187880995,0.0,-1.5950847812683224
375,0.6071748782197136,1.0,0.6739718496270861
376,-0.4325198971361806,0.0,-1.6656019468423666
377,0.824343893376194,0.0,1.1093818566912632
378,-0.7717483510188529,1.0,-0.4358889088666659
379,0.17816070033754938,0.0,-0.23473801583746423
380,1.0322071234182015,1.0,0.37811552164391204
381,-0.14397338495475004,1.0,0.5301783248091398
382,0.651333046034722,1.0,1.1185860780909676
383,-0.4289949218238228,1.0,1.8892825341734927
384,3.3533768866174465,1.0,0.7020704222672489
385,1.392093568210365,1.0,0.41403784381592235
386,0.4289499372209779,0.0,-0.8384767910714257
387,-0.84104142524122,0.0,-1.1312547125663468
388,-0.2259518514897096,0.0,-1.0107609131387378
389,-0.3388942320627963,0.0,-0.26142692128909906
390,0.6238080650111205,1.0,0.8341380209808495
391,0.48906403711026425,1.0,2.137021922956622
392,-1.4892714862540815,0.0,0.3658484461565261
393,-0.4246838250436436,0.0,-0.4885642980993691
394,-0.03931554596734414,0.0,0.7743415372588169
395,-0.7201376524801684,0.0,0.3132637585040897
396,1.0423499825431053,0.0,-0.7765952765418926
397,0.31915843924195353,1.0,0.741880102009357
398,-0.24785551966347616,0.0,-1.4079965645363095
399,-1.0925273923469676,1.0,-1.5115073599162954
400,0.9935318845433052,0.0,1.535089082284249
401,-1.9010996142020335,1.0,-1.662057004563293
402,-0.54215986844443,0.0,1.5299714470958752
403,-0.4232636791339591,0.0,0.4382279764613903
404,-1.391005221975272,1.0,1.1828856641920682
405,-1.7455882171592423,0.0,-0.5810837707417627
406,-0.27044131016138995,1.0,1.5927436459453128
407,1.6727708371537304,0.0,1.0711627911271098
408,0.00042528439928811446,1.0,1.6831708917663895
409,0.26491686438853945,1.0,-1.607668458074312
410,1.2763794238016593,1.0,-0.09518259134258056
411,-0.046239607324599044,0.0,-0.7747825137696177
412,-0.3756260576557313,1.0,-0.07097438612855994
413,0.25512176300847367,1.0,-0.06203746960208012
414,-0.9510533491005752,1.0,0.04452875677318201
415,-0.48780286130914535,0.0,0.09720585434522902
416,0.4921032596525229,1.0,1.6888639038642077
417,-1.0244005082280108,1.0,-1.4391255960612608
418,1.1247143595149403,1.0,0.96289793115694
419,-0.5723568907503636,0.0,-1.1123187077651928
420,1.113271955983279,0.0,0.2624237820490473
421,-0.5262471174456177,1.0,-0.028766295579612244
422,1.279102935084314,0.0,-0.6107469475488652
423,1.3660277539557175,1.0,-1.6386291035100418
424,-0.7447780357074697,1.0,-0.7126198826923087
425,0.028462497107648217,0.0,0.6177923873218572
426,0.5118451782923901,0.0,-0.6101531690952556
427,-0.5925073886173863,1.0,1.139337533201206
428,-0.2357160474029966,0.0,-0.003485191216027958
429,1.0470040734756647,1.0,0.975566636713873
430,-0.5756345771424615,0.0,-1.2748417446857012
431,-0.45731252818819645,1.0,2.1427455518206884
432,0.5701907204854104,0.0,1.6278690111918124
433,-0.7504151006345648,1.0,-1.0142145355217986
434,-1.3677548282364378,1.0,-0.34245161481730313
435,2.4095391727904087,1.0,1.9790782751893001
436,0.5397291547541866,1.0,-1.562961968350899
437,0.8572089037709254,1.0,0.44034825732179655
438,-0.3528677701582619,0.0,-1.3533793632860218
439,-0.8311955461473839,0.0,-0.20672514720594382
440,-0.08215199249121166,1.0,2.4871984660540734
441,0.11025864242597168,0.0,0.1351400042804349
442,1.3018194651888122,1.0,1.8546005047214873
443,0.28569666785643194,1.0,-1.144926877756057
444,-0.48103248149742955,0.0,-1.8771591037743351
445,0.5695253953083573,1.0,2.0602708568976507
446,0.01306700732952483,1.0,1.4408298467605083
447,1.306114414040751,1.0,0.3956194799605318
448,0.36955357346365836,0.0,-0.28029966975680015
449,0.24181667918737418,1.0,2.0514443001339555
450,0.5319350347288194,0.0,0.08842005874061984
451,-0.008301227055734335,0.0,0.25045065826343105
452,0.3325034059542613,0.0,1.255833180128752
453,0.5726693663288688,0.0,1.7356237341924958
454,0.13225072249822295,0.0,1.027302587591787
455,0.5783995107304137,0.0,0.6085545444660785
456,-0.8915496959831113,1.0,1.4163258509910288
457,-0.523203930275623,0.0,0.5230223870183661
458,1.0961735481956203,1.0,2.3483484243821984
459,-0.5507832495054714,0.0,-1.7074822491226296
460,-0.8365191051056949,0.0,0.23727421666849807
461,0.30905360724073444,0.0,1.059251104865916
462,0.9015782009386754,0.0,1.2793038287048175
463,2.394569350244826,1.0,0.7303768645697962
464,-0.4896929341422395,0.0,-0.19784029369207118
465,0.48445543576417377,0.0,0.05937146765133322
466,-0.03360510832366964,1.0,-0.5578416935907646
467,-0.8855601538102722,1.0,0.0906417514369579
468,0.4286576180057321,1.0,-0.4033281896199963
469,0.4514878736718325,1.0,2.862603234172922
470,1.722331464147874,0.0,2.3293378772553868
471,-0.6813293188055255,1.0,-0.09094781023204268
472,0.655205035438582,0.0,1.2159103500460116
473,-1.5431138989019355,1.0,-1.2373116387463763
474,0.6528482839341757,0.0,0.6339007889054799
475,0.3082545253414972,1.0,0.463869962111032
476,0.6979403100468498,0.0,0.1326994638588015
477,-0.1810419677472256,1.0,1.8812816994194528
478,-1.038662002833593,0.0,-1.4746062288951132
479,0.7735731445628505,1.0,-0.355244533448579
480,0.08674162466608769,0.0,-0.3899948364764305
481,0.2736701673039896,0.0,1.1264510464301614
482,0.5278439303758944,0.0,1.9519960457982355
483,-0.4181775998367977,1.0,0.49760529249880875
484,-1.1349606638841168,1.0,0.17468219264807858
485,2.4550703762670847,0.0,1.9947770502948359
486,-0.651630920973389,1.0,0.309460618662775
487,1.610316836907093,1.0,2.2989787442865053
488,-0.019851909383331603,0.0,0.42801347820108276
489,0.8784470454537797,0.0,-1.550763319376162
490,-0.9806770923884155,0.0,-0.23892445591956807
491,0.19667632683936828,0.0,-0.13268587734338883
492,-0.8857003320545883,0.0,-1.8350541754964589
493,1.3305466867828917,0.0,4.058596868180541
494,0.6769999771191635,0.0,0.5691647104013198
495,-0.4459270232283489,1.0,0.9153789423267333
496,-0.6526891047150061,0.0,-0.8644914653259395
497,0.3573610002374194,0.0,0.3260742875989383
498,-0.5879659295508366,1.0,-0.10397527893508274
499,0.29578230895953167,0.0,-0.810810037034533
500,1.224694552466777,1.0,-0.05936490710353004
501,-2.2558005028220927,0.0,-0.5143468805174459
502,0.39201362782743016,0.0,0.45139823670897705
503,0.1552463793111453,0.0,0.6766170856234386
504,0.5654833563965338,1.0,0.5373391589805481
505,-0.1109805517634207,1.0,0.08848908785970627
506,-0.31255026772766925,0.0,-1.4837071503765429
507,0.6398072022968972,1.0,1.3465698805106212
508,1.7341085858062986,1.0,1.6405077489431257
509,0.9179459018751335,1.0,1.245201461847349
510,-0.26329405299336966,0.0,-0.09067078424737104
511,0.48605930698993594,1.0,2.0971096115146484
512,0.3211678059698192,0.0,0.59070661388075
513,-0.09646372951462914,1.0,1.604234276337478
514,1.8620973381380015,1.0,3.4853122093894364
515,-0.9757719935159522,1.0,0.9129036437101601
516,-0.08809396681945948,0.0,0.7300519132410233
517,0.5654241515870603,1.0,0.35735032859388766
518,-0.6305543266411945,0.0,-0.7359306514100881
519,-0.5046269511421598,0.0,0.36647108507556964
520,1.2238108589810963,0.0,1.6160073052795696
521,1.9397449451338022,0.0,0.8886041891522263
522,2.5139211926498874,0.0,2.249336596030606
523,1.233009104522488,0.0,2.471700401355868
524,-0.32589292906318124,1.0,1.1109935207452113
525,0.3014010652184218,1.0,0.9606072632174179
526,-1.5575001093681962,1.0,0.35204288867787437
527,0.06749812392048751,1.0,0.16697348627306963
528,-1.6602956351572877,0.0,-0.9579470369056388
529,-0.007614425413425871,1.0,0.5232814029614237
530,-0.7248764603536083,0.0,-1.2302553429720038
531,1.7402373384079541,1.0,0.8170919387782515
532,-0.9676201219596753,1.0,1.3716562848199543
533,-0.5455220764710461,1.0,1.392524329082586
534,-0.3079515783260862,0.0,-0.9928770195638901
535,-0.3854388233688808,1.0,-0.43470196513218307
536,-0.15402824365705606,1.0,0.8538096796079663
537,-0.583184086498956,0.0,-0.4193671066169248
538,1.5937696096123892,1.0,2.0044781865775136
539,0.22369719595701776,0.0,0.5365669221921336
540,1.9741749090471417,1.0,0.6406402455569908
541,0.17679530405865843,1.0,0.4771486731669058
542,-1.0625603848784804,1.0,-0.917874810668711
543,-1.0928907074492118,0.0,-1.462757215721453
544,-0.2675338868435204,0.0,0.017464925901782696
545,-1.6803677050260124,0.0,-0.08450432059221769
546,0.10697727096081247,0.0,0.46008446412079773
547,0.8974516220245741,0.0,2.335376045647758
548,-0.175905431522019,1.0,-0.7014267777841147
549,0.5286252064423965,1.0,1.6289090247805385
550,1.2073588523075511,1.0,1.7069964836525324
551,-1.97772988691879,1.0,-0.4448324117523757
552,-0.621735745410605,1.0,0.03353473548178923
553,1.252060367693288,0.0,0.3205205134851852
554,-0.9557159110775048,1.0,0.4675840607675169
555,0.7655874928409515,0.0,0.5152494449844335
556,0.6173968031097777,1.0,1.360993008419404
557,0.6335650946827702,1.0,0.8251923591065415
558,-0.35678231669490845,1.0,0.3969450989797565
559,-0.5129407661187931,0.0,0.4663685926984051
560,-1.3366687259324617,0.0,0.07767471418995242
561,-0.04539683593626068,1.0,0.8755189718544232
562,-0.37442095960620553,0.0,0.12843938789034695
563,0.40391664524701776,1.0,1.1619536878060899
564,2.3829351065471505,1.0,3.8254804408271976
565,0.9185960179030728,0.0,0.78163573323878
566,-0.9158929506721726,1.0,1.551715752028563
567,1.6596232178311958,1.0,2.8536937428654845
568,0.39437102768601784,1.0,1.7779468647182133
569,-0.12334707643351989,1.0,-0.1283227206420421
570,-2.0852119009842127,0.0,-1.8264440464888965
571,1.5910759744550376,1.0,1.4962305601240542
572,0.3072473615497935,1.0,0.18975677801785756
573,-0.603336136006926,0.0,-2.1195688721069685
574,-0.050513749233101056,0.0,0.2997221248805524
575,0.5153878161186125,0.0,1.5495917758009141
576,-0.43432817479656355,0.0,-1.488309436009742
577,1.949111668971233,0.0,2.641176803418287
578,0.20730501677842947,1.0,0.4923034962982238
579,-1.4161857580437176,0.0,-3.4128685767094114
580,1.0859393401841189,0.0,3.259016613510278
581,0.40545296993666735,0.0,0.05238588230716021
582,-0.5732116337824807,0.0,0.015789704606638977
583,0.7912170735361668,0.0,0.06759163201569124
584,-0.9215672702702987,1.0,0.9682406130487022
585,-0.259737470412825,0.0,-0.4575094449097567
586,2.8932949951586195,0.0,1.63640397702882
587,-0.36166443936784975,1.0,0.8124489838722142
588,-0.3511256100123753,1.0,-1.3768970380621743
589,1.19770624392173,0.0,1.3155910495130394
590,-0.20624243646872595,1.0,0.10270998562667072
591,1.2268767681846275,1.0,-0.1747729290836859
592,0.30772703444779353,1.0,1.42026469614846
593,1.3354098673863506,0.0,0.7979265877532506
594,0.9189012926716559,0.0,1.6398510372490263
595,1.1159252060939016,1.0,1.0516789733822482
596,0.7966261757585232,1.0,1.635494079798443
597,0.95741774814473,1.0,1.8232201371146877
598,-1.8137718090852464,0.0,-1.607548683814509
599,1.0157976249513958,1.0,1.0568027647239528
600,0.05136176408318116,0.0,-0.14345046026941494
601,1.060544036775634,0.0,-0.1970612239255053
602,0.6587218851525963,0.0,0.4978848199092834
603,-0.5354513450105307,1.0,1.160423174639107
604,1.495316018192908,1.0,1.8538306580098691
605,-1.1682585157955114,1.0,0.6119021995952479
606,0.0906628310117142,1.0,1.8321736659014014
607,-1.2766553856852643,1.0,-0.43178947647165494
608,0.3201873417707074,1.0,-1.0886832812563518
609,0.0012533254255906456,1.0,0.9628871407732634
610,-0.5245754138734696,1.0,0.31708814008832314
611,-0.27038732484324135,0.0,1.174733747146219
612,0.2552669233853164,1.0,0.08992433575386238
613,0.10671504802281342,1.0,0.0753826903711749
614,0.512168371277936,1.0,0.37190710634133994
615,-1.0379862723866344,1.0,-1.2961174767053958
616,0.011275458257709134,1.0,-0.29934161058138076
617,0.07519807621973057,0.0,0.8114264652851584
618,0.8957845514012092,0.0,0.9215889172356624
619,-1.0746898071273554,1.0,-0.560193291182404
620,-0.3643881926180485,0.0,2.4961104518838755
621,-1.323501178715198,0.0,-0.7390520034712814
622,0.3886148414794668,1.0,-0.0746884590589495
623,0.2950435831425462,0.0,1.9048833606308389
624,-0.28165765219157285,0.0,0.2001699338736209
625,0.3877221527509772,1.0,1.0180470981411893
626,-0.88153673850585,0.0,-0.7210912146179955
627,-0.15292745169629293,0.0,-0.3939371031721826
628,0.14083025982895217,1.0,-0.5728288658672064
629,3.344883459559981,1.0,2.7212310671568396
630,-1.2299230772175818,1.0,-0.250379685504282
631,1.884320606566837,0.0,-1.67158035553175
632,1.5889205635336856,0.0,2.3842978823384136
633,0.6448907176461761,0.0,1.2062396515070497
634,0.1321411403567448,1.0,0.1199451514657014
635,0.282980989865541,1.0,-0.049192950230740884
636,0.021253321450694963,0.0,1.5709651462972056
637,0.03545663568776123,0.0,0.45004984231972517
638,-1.851503649252419,1.0,0.6329960921425921
639,-0.13804068935327982,0.0,-0.8876585878862463
640,-1.9004428012092274,0.0,-0.6267871732462923
641,0.6636359034599536,1.0,0.9105729457994766
642,-0.7124874932012434,1.0,-0.30026176116693987
643,1.0689718134116966,0.0,-1.336885248634412
644,-0.35471430913731866,0.0,0.02694995351427762
645,-0.6365571861645575,0.0,-1.1651833632783453
646,0.4281755911306975,1.0,1.2239088187628404
647,1.1335096453182476,0.0,1.136246104674481
648,-2.063803686657743,1.0,-1.8191128606100417
649,0.5003557576570603,0.0,1.8319538703960863
650,2.0580849322584456,0.0,-0.7097176898127024
651,0.20608080802632478,0.0,-0.9407126310011692
652,-0.6915107320074189,1.0,0.8601763239397611
653,1.0439637274286837,0.0,0.6185973389587075
654,-1.456220209148747,0.0,-0.21212785120196298
655,1.002963019665774,1.0,0.47337626995410875
656,0.6720712819141512,0.0,-1.1528349501922106
657,0.3650227015992349,1.0,2.019890191590668
658,-0.41351421490284956,0.0,-1.0646766561030212
659,0.7610448762906276,1.0,2.411010556021056
660,-0.5848087745212058,1.0,0.2161035589022611
661,-1.3256474902291349,0.0,-1.1165704428592156
662,0.707863272186024,1.0,0.9619985077070535
663,-0.7555485963930083,1.0,1.1714291571947075
664,0.04892981390064383,1.0,0.1810825494960292
665,-0.8364279203744649,0.0,0.726173847992636
666,0.20325416006281272,0.0,1.3907082674065374
667,-0.4474754343335253,1.0,-0.491719729294305
668,-0.43854249420974567,0.0,-1.2206044356401562
669,1.7761756501950996,1.0,1.155843323576026
670,1.053755501410824,1.0,-0.5646408961340135
671,-0.9563259179744935,1.0,0.3403584752630037
672,-0.261134417082229,0.0,0.5340243112460273
673,-0.09045564198864013,0.0,-0.7344812374137148
674,0.13084378269933497,0.0,-0.30533134251277794
675,1.061849017394386,0.0,0.7961832673144426
676,0.20260104915646757,0.0,-0.8240676198809976
677,-0.46791081555250014,1.0,-1.623086173780704
678,0.9054936970631378,1.0,1.3243696281297466
679,-0.3256805200854037,0.0,-2.7861650027444234
680,-1.211520728234587,0.0,-0.15990867425966965
681,-1.4540002855053682,1.0,-0.04492641211736301
682,1.0834047143070835,0.0,0.49742162654792255
683,1.007922872057848,1.0,-0.11134363480657772
684,-0.312482963299589,0.0,0.4247397981627969
685,-1.4665838155345206,1.0,-0.6629767109161881
686,0.2732823789608412,1.0,0.35844393738993996
687,-0.05006694159860445,1.0,0.3279828927852501
688,-0.12157780054696168,0.0,-0.44294946451767964
689,0.5556944313232185,0.0,0.9133637713832425
690,1.8748192477329855,1.0,1.3883070227367784
691,-1.1458810433403805,1.0,0.02509406072999884
692,0.22124795216642765,1.0,0.36365903418693674
693,-0.14329727365944595,1.0,-1.341890302388372
694,0.2925995594887158,0.0,1.5312687238168092
695,-2.2187732249060628,0.0,-2.2555402432044955
696,-0.6345650378566798,0.0,-1.229398601986377
697,-0.8240189650956264,1.0,1.0825958557017432
698,0.5934626491177487,0.0,-0.597841450370129
699,0.15908052921879995,1.0,-1.5119552762728072
700,-0.5613967217855758,1.0,-0.9736101576983834
701,0.014361322288329183,0.0,-0.09865673045647692
702,-2.228399836996092,0.0,-2.5069170088624313
703,2.748649427804029,1.0,2.8608849950631057
704,0.35688361258508305,1.0,1.5164013113814527
705,-0.12223468288611139,1.0,-0.5861280222444414
706,0.12444147260384936,1.0,-0.8103851420422237
707,-0.18602441838474104,0.0,0.6061089001806035
708,0.2514084939370921,0.0,-1.7745381915886909
709,1.2516331763302648,0.0,0.17692222473550479
710,0.3470761751135463,1.0,0.6140959493478073
711,-0.43111063125063764,1.0,0.2811528341038335
712,-1.4880594085928047,1.0,0.4802567857256014
713,-0.33766484705289385,0.0,-0.583792809524506
714,1.1771588687741859,1.0,1.667899056187184
715,1.3258538005420675,1.0,2.7706190920433578
716,-0.06901178351978005,0.0,-0.14545165089401452
717,1.4256709180177665,0.0,1.7788382165044687
718,0.18287638723519264,0.0,-0.9963175889840499
719,0.10759859905370926,0.0,-0.6977176432890427
720,-1.2427591894727266,1.0,-1.9996575848309712
721,-0.5629909260946088,0.0,-0.8528250253927192
722,0.07171558047548386,0.0,-0.8769614852486831
723,-0.1504035280860391,1.0,0.9367248705726183
724,0.880817869882812,1.0,1.106699006549822
725,0.5758231789659,0.0,2.362551712963792
726,-0.9128119923351911,1.0,0.03639405860390714
727,0.7789896351203541,1.0,2.8719392024272556
728,-0.22277473822618651,1.0,0.3988407647577514
729,-0.2669017476434026,1.0,2.5125519145422235
730,1.029181595988352,1.0,2.3126790063419533
731,-0.12330480444906762,0.0,-1.0892114930905592
732,-1.8047980848364549,1.0,-0.3871488706602169
733,-0.016149677886954913,1.0,-0.19160998123396383
734,-0.015864496752486957,0.0,0.5438165749038731
735,-0.28360337811672875,0.0,0.3522538749424448
736,-1.2743048812674935,1.0,0.597997534906163
737,0.3361805584418148,1.0,-0.004018221731160954
738,1.3540569232954043,1.0,1.4388276816785135
739,-1.0070404099155192,0.0,-2.1410392595883483
740,1.206789379038918,1.0,1.0399455004961293
741,0.5330388292762607,0.0,-1.1447842807169781
742,-0.10256723753854992,0.0,-0.859225717992077
743,1.6863742192104603,0.0,2.278950091734078
744,-0.8562056156791767,1.0,0.8494918645504252
745,-0.13464462733938584,0.0,-0.38008298893743575
746,-1.623463546822503,0.0,-0.6665949379907379
747,-1.040106830209916,0.0,-0.22365754507208424
748,-0.4377924382848511,0.0,-0.5620728365322232
749,1.3770637588860413,0.0,1.47921423718947
750,-0.9814767793341249,0.0,-1.825480423722007
751,-0.478889960796411,1.0,1.028627676571273
752,0.20502064091021777,1.0,0.1340590183872346
753,0.4580966028284799,0.0,1.1950944665567802
754,0.12054110612514822,0.0,-0.45514858230239086
755,-0.15494229003654744,1.0,0.9284323172383311
756,1.1859296895433171,0.0,0.5423471774533616
757,0.6497497412221525,0.0,0.8091614079264516
758,-0.06972143428248742,0.0,0.9429561774890024
759,1.2614198045434057,0.0,1.0967602806779388
760,-0.6051225486665625,0.0,-0.316426336975369
761,0.18376671970409914,0.0,0.3830478872047631
762,-1.280976867776156,0.0,0.5416848040994259
763,0.6850190457999593,0.0,0.8178521714919716
764,1.3076397719830464,1.0,0.779911492448556
765,0.20660881603242282,1.0,-0.8493602957555865
766,0.8276906362778662,0.0,1.4017453285161323
767,-1.6925355426282078,1.0,-1.6518494589080879
768,-0.8171588263736728,1.0,-0.1744517792799623
769,0.2506428425716253,0.0,-1.4921737297903375
770,-0.7945162905911505,1.0,1.3595471812675455
771,0.11409693458043317,0.0,-0.969979863139952
772,0.035887414627038663,1.0,2.47831408033971
773,2.858273464278841,1.0,1.894929430937677
774,0.06389320082019884,1.0,-0.7505066877096065
775,1.1498682433701393,0.0,0.9409290533393462
776,-0.7559194781490778,0.0,-1.0051465321679027
777,-0.01398782594685433,0.0,0.0241977804438447
778,0.33188640517947177,1.0,1.9890813070000277
779,0.7333875729609303,1.0,0.2844951147893662
780,1.547092113060103,1.0,1.42385786626129
781,-0.13881271345644636,1.0,0.8597676170162993
782,0.8136832713187764,1.0,0.6561249302992239
783,-0.6438165631015655,0.0,0.8527275521102047
784,-1.3817886885849422,0.0,-1.1908251295985104
785,-0.6935425459310853,0.0,-0.252851897629178
786,0.05528136847990425,0.0,0.4685769812448279
787,0.1222263627183742,0.0,0.8214812452237775
788,1.037650522627279,0.0,1.5145557463295505
789,0.0848475875916294,0.0,1.3737818063335299
790,-1.0153147096643045,0.0,-0.7032140450520905
791,-1.186730722368741,1.0,-1.7918038074099796
792,-1.1243593308192787,1.0,-2.0073300537597074
793,-1.6277164157453259,0.0,-0.269917589712831
794,-0.36443438494868563,1.0,-1.2033884230071095
795,0.6141580220634928,1.0,-0.5766602704189002
796,0.8692508764316815,0.0,2.237964339602166
797,-1.6625169795103774,0.0,-1.4601469311565527
798,-0.9539029312985788,0.0,0.6271031879167479
799,-2.521548458307356,1.0,-1.6870559791475923
800,1.3790766316088738,1.0,1.5883733785773178
801,-0.08150032828030075,0.0,0.29352907900206177
802,0.48733743671458973,1.0,0.6504193022114979
803,-0.5347756675482529,0.0,0.3161963474524766
804,0.3884447832538328,0.0,2.2708026742229825
805,1.0026499851258461,1.0,1.4653994093662384
806,-2.164883747937702,0.0,-1.2613777854238255
807,1.0583341791042948,0.0,1.1480820137436076
808,-1.2562690466186415,1.0,-0.7512017641274612
809,-0.8638790705016338,1.0,-0.4316127174974046
810,0.2980213733591916,0.0,-0.33551239157955715
811,-1.6715659255151099,0.0,-0.19353769324048375
812,-0.7799935934432971,0.0,0.2575931943243299
813,-1.14910927503176,1.0,0.035983739546790225
814,-0.7799227830545992,1.0,1.5035238613294313
815,0.3924663765469465,0.0,0.3730947709776312
816,-0.12632784212730935,0.0,0.032597410236243685
817,-0.6379837936954923,0.0,-2.8800004239118113
818,-1.5862336127527912,1.0,-1.8018138864618871
819,0.2452000295966368,1.0,2.24555065922186
820,0.5074332437226583,0.0,0.48072335446473213
821,1.06203829913911,0.0,-0.8967202521786933
822,-0.9985882236635947,1.0,1.0088992690631533
823,0.9932530179495244,1.0,0.010941814427645302
824,2.609960847254841,0.0,0.9887866292263974
825,0.8025632190148345,0.0,0.5537165352854048
826,-2.3185945469214215,1.0,0.8488464292314839
827,1.5154354619258148,0.0,1.5365444499793937
828,-0.839593165381145,0.0,0.43144903069981777
829,0.8112460801688873,0.0,-0.17400526113299758
830,0.12360792526622634,1.0,0.7178891017682658
831,-0.21212384008314691,0.0,0.30351533254539065
832,-0.31803614005023584,1.0,-0.14976709749025202
833,-0.35208866956011065,1.0,0.23841401760066766
834,0.6489272227341185,1.0,1.6006735190731485
835,-0.2724494206493703,0.0,-0.15314875098431438
836,-0.8360119916744831,0.0,-0.4383486756206446
837,-0.2589868105502017,1.0,0.08873099902975812
838,1.4316059832685804,0.0,1.667791309379349
839,2.4686108597801413,1.0,1.699161684557024
840,1.9232617255253157,1.0,1.3354840177403744
841,1.2038790595615272,0.0,0.03899685726280944
842,-0.892040102175772,0.0,-0.581507482928687
843,0.202091265694855,0.0,-0.7771301894281567
844,1.148842242434018,0.0,0.9908667978887237
845,0.5822414053715503,0.0,0.9032424636223825
846,0.35453663004407754,1.0,0.7470469132874835
847,-0.7333512207632831,0.0,0.3757873384763909
848,-0.4896454926372782,1.0,1.6877734711119565
849,1.5810586176574346,0.0,0.6175951997154474
850,-0.74362867581129,1.0,0.5553178259387389
851,-0.9489654542216367,1.0,-1.2642295375242396
852,-0.5610620377110733,1.0,1.4877578943841887
853,0.879145042278922,1.0,0.12453516424209254
854,-0.12063977056187547,1.0,-0.7237815271462693
855,1.2581930753638664,0.0,-0.6828410407463771
856,3.488696443961069,1.0,2.4372432533161366
857,-0.15084535539201885,1.0,0.7459125077509479
858,-0.45979955620378765,1.0,-0.9661579284032562
859,0.5234795652497533,0.0,-1.2767415707993957
860,-1.0596325023022033,0.0,-1.074622170740278
861,1.642302215985652,0.0,1.4840860744142494
862,1.2063392372067137,0.0,1.0547725572477264
863,-1.4759364551979746,0.0,0.710790364152689
864,-0.16364783763549565,0.0,1.4177260874333661
865,0.5044503801709238,1.0,1.1337589899975729
866,0.7236160554504232,1.0,2.3394303512377292
867,1.2877786449460185,0.0,0.6315830844347288
868,0.36007677497478663,0.0,1.4629502009955253
869,0.04022401115970527,0.0,-0.39156533846509034
870,-0.15398471328849195,0.0,-1.8457965213029799
871,0.3123588740613557,1.0,0.9321364463248676
872,1.4176935144224048,0.0,1.2346502199085634
873,0.15421219926003052,0.0,-0.9974458586270338
874,-0.17288126633727693,0.0,1.8442285682230914
875,0.11744481697059551,1.0,0.7914329784329049
876,0.511272365838203,1.0,3.111683647480185
877,0.9859896260975471,0.0,2.5133589704524457
878,-0.9328052737602983,0.0,0.3905484364442897
879,-1.1462688993630956,1.0,0.17337890082337123
880,1.4996197759428125,0.0,1.4670565404281382
881,0.49169094234483823,0.0,-0.7365033954096687
882,0.7637619039955327,1.0,1.6398242586841825
883,-1.0174228952204545,1.0,0.5509893799336869
884,-0.3365584949609808,1.0,0.09464717889544508
885,-0.4118735123501118,1.0,0.7085740709836268
886,0.4126414545194727,0.0,-0.804478722658193
887,1.3926654669478304,1.0,1.7477146834331703
888,0.4353580713668247,0.0,1.8169762111798693
889,0.6821416135451669,0.0,-0.15692669434244932
890,-1.6708207914634108,0.0,-0.07120296001490845
891,0.026294620775751287,1.0,2.6608463268048546
892,-1.1481228606332394,1.0,0.9147308717482545
893,0.3290157609960633,0.0,-0.42538500452186867
894,0.5104367643482369,0.0,1.581827532823872
895,1.3041879528026195,1.0,1.4589377711844127
896,-0.8643463602742207,0.0,-1.8385895771315628
897,-1.942276801745031,0.0,0.15775678992187325
898,1.5939195937917952,0.0,-0.35950790240824093
899,0.14210260861315435,1.0,1.4566451803267944
900,0.08918072666043142,0.0,1.0413051794436055
901,0.4782218820037715,0.0,0.056037097688382165
902,1.8547967490977812,0.0,0.7453852022695948
903,-0.07694289580408144,0.0,0.3263220486158422
904,0.42405383906497196,0.0,0.07917570410272137
905,0.2540927491582493,1.0,0.3026434009439962
906,-0.1725696948429408,1.0,0.31542608475631106
907,0.10097998124009912,0.0,0.6973919938262421
908,1.2933958031043857,0.0,0.0349425470394612
909,1.2215222793895306,0.0,-0.028601636771391492
910,0.8612997633007123,1.0,0.289027777590549
911,-0.6210754019926578,1.0,-0.802148967250476
912,1.1100526349189388,1.0,2.128887418154771
913,-0.519112600350553,0.0,0.369666599682237
914,-0.8701472882679276,0.0,0.3471707001273125
915,0.945263705126521,1.0,0.12094372560608468
916,-0.09897301576230821,1.0,0.05315595612624552
917,1.0532287313502273,0.0,0.09206295880404042
918,1.3530564620514887,0.0,-1.2171183714659601
919,-1.1359055949822363,0.0,0.38012314802641833
920,-0.9115703322390004,0.0,-0.3922771575567807
921,0.2014937527438639,0.0,-0.16132377231360595
922,1.47250129419342,1.0,0.02800183899109987
923,-0.5387063445632445,0.0,-1.0680225293278602
924,-2.0995529129464408,1.0,-2.2900060047609885
925,-0.01234638770494,0.0,-0.4671507949586502
926,0.4104480534663524,0.0,0.8727793311017936
927,0.7770736222088221,1.0,0.4227229658986257
928,-0.6132695077586794,1.0,0.0718171327990878
929,0.47628176569842645,0.0,-0.5414790747040739
930,0.19474374691973922,1.0,-0.09418038947401941
931,0.2716003397102126,0.0,1.320117726260017
932,0.266601172462939,0.0,-0.5138646859946827
933,-0.2269017432902752,1.0,-0.8362967266747106
934,-1.696119543528682,0.0,-1.159109309101627
935,-0.6356457080056054,0.0,0.40149855389043115
936,-1.7088252095764764,0.0,-0.3797746146149394
937,-1.007454147576524,1.0,-1.1111579408465992
938,1.1316691176369411,0.0,1.3195543514518446
939,-1.3792415972107095,0.0,-1.0190974022705048
940,-1.4498324846247157,1.0,-0.5193802994939166
941,0.2350536858590311,1.0,0.041915519039046445
942,0.25620971154027794,1.0,0.4293931946201157
943,-0.6835927738806454,1.0,-0.8467424257877345
944,0.3548606645687218,1.0,2.2949781738175696
945,-0.6424892773726423,0.0,2.154659697591494
946,0.7811066783235486,1.0,1.1141031027844184
947,0.9805147321198204,1.0,1.8673907519195039
948,1.3081168860297447,1.0,0.13232021670451122
949,0.73538553527096,0.0,0.8888956710776532
950,-0.3980252011961062,1.0,-0.9760051316353457
951,0.24837349128546468,1.0,-1.3023991508168737
952,0.3660857785950391,1.0,-0.5941104577529621
953,1.160528285123177,1.0,-0.5469621858365967
954,1.0289108149767172,0.0,0.016606249367231096
955,0.21760424061776684,1.0,2.6263353278224866
956,-0.011052586460919389,1.0,1.5358277008831496
957,-0.7039384921702654,1.0,0.510656815311588
958,0.37677933228495164,1.0,-0.23054714634493634
959,1.033432674030692,1.0,2.111437331515078
960,1.3829779779187863,1.0,1.196849803680856
961,-0.7551505995652436,1.0,0.3156737277928962
962,0.9765103847701158,0.0,0.11794554190500456
963,-1.5704668060919509,1.0,-1.6425911314816082
964,0.17816014679269157,0.0,0.7653194032072768
965,-0.5510341466400575,1.0,-0.5572705362692462
966,-1.334768234298687,1.0,-1.4452233493478408
967,0.09544414086786115,1.0,-0.3898173873512977
968,0.626711939263225,0.0,0.06375031110286744
969,0.7994528877598857,1.0,0.8600590130094347
970,1.6371584444447216,1.0,2.344798434508982
971,2.5484780207442914,1.0,2.3239070659361527
972,0.31164381589386736,0.0,0.9759729888221331
973,-0.8014894885351079,1.0,-0.5410480628592664
974,1.7743317206959204,1.0,1.254589394976862
975,-0.8451685593731312,0.0,2.8311537059678034
976,-0.5129834193335291,1.0,-0.5364431429235608
977,0.5288742594998164,0.0,1.0831245884592784
978,2.287679845802163,1.0,1.8970830555725522
979,1.8878582859035307,1.0,1.6556281344199932
980,0.6362887644234292,0.0,-0.164574600997059
981,0.4010600828947285,1.0,1.933093366467827
982,-0.7793813687363312,1.0,0.524248601216466
983,0.30854468825468456,1.0,1.4216313498534041
984,1.8042106983135748,1.0,0.4134633824737256
985,-1.8809003453206625,1.0,1.2350360590898983
986,1.219392517554164,0.0,0.623665872807421
987,1.3779511361951569,0.0,1.0499545135112052
988,0.6732472212245152,0.0,0.18910704153423366
989,0.04228890563623547,0.0,-0.840216157898089
990,1.2483088607752588,1.0,1.2663558860056985
991,0.4309465171362842,1.0,-0.1716647768173687
992,-2.0287511772305105,1.0,-0.5464683415468482
993,0.956021354191056,1.0,1.941619769539741
994,-0.8841109756350475,1.0,0.015914607135952483
995,1.556415553934884,0.0,-0.5710924841193838
996,-2.1404157340118513,1.0,-1.350848566310868
997,-0.2686573802159918,0.0,0.17634611407412062
998,-0.8812194124388077,1.0,-0.5823463746303387
999,1.477009436770277,0.0,0.14615015805507925
